{
    "inputSize": 5,
    "outputSize": 12,
    "learningRate": 0.009999999776482582,
    "iterations": 1000,
    "bias": [
        0.9997130632400513,
        0.9997130632400513,
        0.9997130632400513,
        0.9997682571411133,
        0.9997429251670837,
        0.9997429251670837,
        0.9997429251670837,
        0.9997682571411133,
        0.9997130632400513,
        0.9997130632400513,
        0.9997130632400513,
        0.9997682571411133
    ],
    "weights": [
        -0.19993221759796143,
        -0.19993221759796143,
        -0.19993221759796143,
        -0.19993221759796143,
        -0.19993221759796143,
        -0.19993221759796143,
        -0.19993221759796143,
        -0.19993221759796143,
        -0.19993221759796143,
        -0.19993221759796143,
        -0.19993221759796143,
        -0.19993221759796143,
        -0.19993221759796143,
        -0.19993221759796143,
        -0.19993221759796143,
        0.000054718602768843994,
        0.000054718602768843994,
        0.000054718602768843994,
        0.000054718602768843994,
        0.000054718602768843994,
        -0.09239211678504944,
        -0.09239211678504944,
        -0.09239211678504944,
        -0.09239211678504944,
        -0.09239211678504944,
        -0.09239211678504944,
        -0.09239211678504944,
        -0.09239211678504944,
        -0.09239211678504944,
        -0.09239211678504944,
        -0.09239211678504944,
        -0.09239211678504944,
        -0.09239211678504944,
        -0.09239211678504944,
        -0.09239211678504944,
        0.000054718602768843994,
        0.000054718602768843994,
        0.000054718602768843994,
        0.000054718602768843994,
        0.000054718602768843994,
        -0.19993221759796143,
        -0.19993221759796143,
        -0.19993221759796143,
        -0.19993221759796143,
        -0.19993221759796143,
        -0.19993221759796143,
        -0.19993221759796143,
        -0.19993221759796143,
        -0.19993221759796143,
        -0.19993221759796143,
        -0.19993221759796143,
        -0.19993221759796143,
        -0.19993221759796143,
        -0.19993221759796143,
        -0.19993221759796143,
        0.000054718602768843994,
        0.000054718602768843994,
        0.000054718602768843994,
        0.000054718602768843994,
        0.000054718602768843994
    ]
}